<?xml version="1.0"?>
<MethodSetup Method="MLP::MLP_1">
  <GeneralInfo>
    <Info name="TMVA Release" value="4.1.2 [262402]"/>
    <Info name="ROOT Release" value="5.32/02 [335874]"/>
    <Info name="Creator" value="cn"/>
    <Info name="Date" value="Wed May 23 15:49:25 2012"/>
    <Info name="Host" value="Darwin rainfall.psi.ch 10.8.0 Darwin Kernel Version 10.8.0: Tue Jun 7 16:33:36 PDT 2011; root:xnu-1504.15.3~1/RELEASE_I386 i386"/>
    <Info name="Dir" value="/Users/cn/Documents/PSI/Projects/CMSSW_4_4_2/src/HeavyFlavorAnalysis/Bs2MuMu/macros"/>
    <Info name="Training events" value="46939"/>
    <Info name="TrainingTime" value="1.83037299e+03"/>
    <Info name="AnalysisType" value="Classification"/>
  </GeneralInfo>
  <Options>
    <Option name="NCycles" modified="Yes">1107</Option>
    <Option name="HiddenLayers" modified="Yes">N+7,N-1</Option>
    <Option name="NeuronType" modified="Yes">radial</Option>
    <Option name="RandomSeed" modified="No">1</Option>
    <Option name="EstimatorType" modified="No">MSE</Option>
    <Option name="NeuronInputType" modified="No">sum</Option>
    <Option name="V" modified="Yes">True</Option>
    <Option name="VerbosityLevel" modified="No">Verbose</Option>
    <Option name="VarTransform" modified="Yes">Norm</Option>
    <Option name="H" modified="Yes">False</Option>
    <Option name="CreateMVAPdfs" modified="No">False</Option>
    <Option name="IgnoreNegWeightsInTraining" modified="No">False</Option>
    <Option name="TrainingMethod" modified="No">BP</Option>
    <Option name="LearningRate" modified="Yes">8.600000e-02</Option>
    <Option name="DecayRate" modified="Yes">3.350000e-02</Option>
    <Option name="TestRate" modified="Yes">10</Option>
    <Option name="EpochMonitoring" modified="No">False</Option>
    <Option name="Sampling" modified="No">1.000000e+00</Option>
    <Option name="SamplingEpoch" modified="No">1.000000e+00</Option>
    <Option name="SamplingImportance" modified="No">1.000000e+00</Option>
    <Option name="SamplingTraining" modified="No">True</Option>
    <Option name="SamplingTesting" modified="No">False</Option>
    <Option name="ResetStep" modified="No">50</Option>
    <Option name="Tau" modified="No">3.000000e+00</Option>
    <Option name="BPMode" modified="No">sequential</Option>
    <Option name="BatchSize" modified="No">-1</Option>
    <Option name="ConvergenceImprove" modified="No">1.000000e-30</Option>
    <Option name="ConvergenceTests" modified="No">-1</Option>
    <Option name="UseRegulator" modified="No">False</Option>
    <Option name="UpdateLimit" modified="No">10000</Option>
    <Option name="CalculateErrors" modified="No">False</Option>
    <Option name="WeightRange" modified="No">1.000000e+00</Option>
  </Options>
  <Variables NVar="13">
    <Variable VarIndex="0" Expression="alpha" Label="alpha" Title="alpha" Unit="" Internal="alpha" Type="F" Min="1.43340192e-04" Max="1.99990481e-01"/>
    <Variable VarIndex="1" Expression="d3" Label="d3" Title="d3" Unit="" Internal="d3" Type="F" Min="2.21055612e-04" Max="1.99752009e+00"/>
    <Variable VarIndex="2" Expression="doca0" Label="doca0" Title="doca0" Unit="" Internal="doca0" Type="F" Min="1.55191792e-05" Max="9.98262167e-02"/>
    <Variable VarIndex="3" Expression="eta" Label="eta" Title="eta" Unit="" Internal="eta" Type="F" Min="-2.49981618e+00" Max="2.49922037e+00"/>
    <Variable VarIndex="4" Expression="ip" Label="ip" Title="ip" Unit="" Internal="ip" Type="F" Min="3.53069481e-06" Max="2.98798420e-02"/>
    <Variable VarIndex="5" Expression="iso_mor12" Label="iso_mor12" Title="iso_mor12" Unit="" Internal="iso_mor12" Type="F" Min="6.00006104e-01" Max="1.00000000e+00"/>
    <Variable VarIndex="6" Expression="chi2/Ndof" Label="normChi2" Title="normChi2" Unit="" Internal="normChi2" Type="F" Min="8.12661050e-10" Max="3.99993682e+00"/>
    <Variable VarIndex="7" Expression="ntrk" Label="ntrk" Title="ntrk" Unit="" Internal="ntrk" Type="F" Min="0.00000000e+00" Max="1.40000000e+01"/>
    <Variable VarIndex="8" Expression="pt" Label="pt" Title="pt" Unit="" Internal="pt" Type="F" Min="5.74822903e+00" Max="5.64194870e+01"/>
    <Variable VarIndex="9" Expression="pt_mu1" Label="pt_mu1" Title="pt_mu1" Unit="" Internal="pt_mu1" Type="F" Min="4.00739193e+00" Max="3.99407120e+01"/>
    <Variable VarIndex="10" Expression="pt_mu2" Label="pt_mu2" Title="pt_mu2" Unit="" Internal="pt_mu2" Type="F" Min="4.00000286e+00" Max="1.98290272e+01"/>
    <Variable VarIndex="11" Expression="d3/d3e" Label="sig3d" Title="sig3d" Unit="" Internal="sig3d" Type="F" Min="9.79959872e-03" Max="9.98683395e+01"/>
    <Variable VarIndex="12" Expression="ip/ipe" Label="sigip" Title="sigip" Unit="" Internal="sigip" Type="F" Min="1.25406333e-03" Max="5.99754333e+00"/>
  </Variables>
  <Spectators NSpec="0"/>
  <Classes NClass="2">
    <Class Name="Signal" Index="0"/>
    <Class Name="Background" Index="1"/>
  </Classes>
  <Transformations NTransformations="1">
    <Transform Name="Normalize">
      <Selection>
        <Input NInputs="13">
          <Input Type="Variable" Label="alpha" Expression="alpha"/>
          <Input Type="Variable" Label="d3" Expression="d3"/>
          <Input Type="Variable" Label="doca0" Expression="doca0"/>
          <Input Type="Variable" Label="eta" Expression="eta"/>
          <Input Type="Variable" Label="ip" Expression="ip"/>
          <Input Type="Variable" Label="iso_mor12" Expression="iso_mor12"/>
          <Input Type="Variable" Label="normChi2" Expression="chi2/Ndof"/>
          <Input Type="Variable" Label="ntrk" Expression="ntrk"/>
          <Input Type="Variable" Label="pt" Expression="pt"/>
          <Input Type="Variable" Label="pt_mu1" Expression="pt_mu1"/>
          <Input Type="Variable" Label="pt_mu2" Expression="pt_mu2"/>
          <Input Type="Variable" Label="sig3d" Expression="d3/d3e"/>
          <Input Type="Variable" Label="sigip" Expression="ip/ipe"/>
        </Input>
        <Output NOutputs="13">
          <Output Type="Variable" Label="alpha" Expression="alpha"/>
          <Output Type="Variable" Label="d3" Expression="d3"/>
          <Output Type="Variable" Label="doca0" Expression="doca0"/>
          <Output Type="Variable" Label="eta" Expression="eta"/>
          <Output Type="Variable" Label="ip" Expression="ip"/>
          <Output Type="Variable" Label="iso_mor12" Expression="iso_mor12"/>
          <Output Type="Variable" Label="normChi2" Expression="chi2/Ndof"/>
          <Output Type="Variable" Label="ntrk" Expression="ntrk"/>
          <Output Type="Variable" Label="pt" Expression="pt"/>
          <Output Type="Variable" Label="pt_mu1" Expression="pt_mu1"/>
          <Output Type="Variable" Label="pt_mu2" Expression="pt_mu2"/>
          <Output Type="Variable" Label="sig3d" Expression="d3/d3e"/>
          <Output Type="Variable" Label="sigip" Expression="ip/ipe"/>
        </Output>
      </Selection>
      <Class ClassIndex="0">
        <Ranges>
          <Range Index="0" Min="1.4334019215311855e-04" Max="1.9968222081661224e-01"/>
          <Range Index="1" Min="4.6845790930092335e-03" Max="1.9975200891494751e+00"/>
          <Range Index="2" Min="1.0400891187600791e-04" Max="9.9826216697692871e-02"/>
          <Range Index="3" Min="-2.4985828399658203e+00" Max="2.4828476905822754e+00"/>
          <Range Index="4" Min="3.5306948120705783e-06" Max="2.9038151726126671e-02"/>
          <Range Index="5" Min="6.0000926256179810e-01" Max="1.0000000000000000e+00"/>
          <Range Index="6" Min="2.0453487792337910e-09" Max="3.9986615180969238e+00"/>
          <Range Index="7" Min="0.0000000000000000e+00" Max="1.4000000000000000e+01"/>
          <Range Index="8" Min="6.0088963508605957e+00" Max="5.6419486999511719e+01"/>
          <Range Index="9" Min="4.0215601921081543e+00" Max="3.9940711975097656e+01"/>
          <Range Index="10" Min="4.0000028610229492e+00" Max="1.9071250915527344e+01"/>
          <Range Index="11" Min="2.4260912835597992e-01" Max="9.9392524719238281e+01"/>
          <Range Index="12" Min="1.2540633324533701e-03" Max="5.9416828155517578e+00"/>
        </Ranges>
      </Class>
      <Class ClassIndex="1">
        <Ranges>
          <Range Index="0" Min="5.6671694619581103e-04" Max="1.9999048113822937e-01"/>
          <Range Index="1" Min="2.2105561220087111e-04" Max="1.8136194944381714e+00"/>
          <Range Index="2" Min="1.5519179214606993e-05" Max="9.4430558383464813e-02"/>
          <Range Index="3" Min="-2.4998161792755127e+00" Max="2.4992203712463379e+00"/>
          <Range Index="4" Min="6.7441583269101102e-06" Max="2.9879841953516006e-02"/>
          <Range Index="5" Min="6.0000610351562500e-01" Max="1.0000000000000000e+00"/>
          <Range Index="6" Min="8.1266104956512208e-10" Max="3.9999368190765381e+00"/>
          <Range Index="7" Min="0.0000000000000000e+00" Max="1.4000000000000000e+01"/>
          <Range Index="8" Min="5.7482290267944336e+00" Max="5.4783279418945312e+01"/>
          <Range Index="9" Min="4.0073919296264648e+00" Max="3.9904296875000000e+01"/>
          <Range Index="10" Min="4.0000252723693848e+00" Max="1.9829027175903320e+01"/>
          <Range Index="11" Min="9.7995987161993980e-03" Max="9.9868339538574219e+01"/>
          <Range Index="12" Min="1.6462861094623804e-03" Max="5.9975433349609375e+00"/>
        </Ranges>
      </Class>
      <Class ClassIndex="2">
        <Ranges>
          <Range Index="0" Min="1.4334019215311855e-04" Max="1.9999048113822937e-01"/>
          <Range Index="1" Min="2.2105561220087111e-04" Max="1.9975200891494751e+00"/>
          <Range Index="2" Min="1.5519179214606993e-05" Max="9.9826216697692871e-02"/>
          <Range Index="3" Min="-2.4998161792755127e+00" Max="2.4992203712463379e+00"/>
          <Range Index="4" Min="3.5306948120705783e-06" Max="2.9879841953516006e-02"/>
          <Range Index="5" Min="6.0000610351562500e-01" Max="1.0000000000000000e+00"/>
          <Range Index="6" Min="8.1266104956512208e-10" Max="3.9999368190765381e+00"/>
          <Range Index="7" Min="0.0000000000000000e+00" Max="1.4000000000000000e+01"/>
          <Range Index="8" Min="5.7482290267944336e+00" Max="5.6419486999511719e+01"/>
          <Range Index="9" Min="4.0073919296264648e+00" Max="3.9940711975097656e+01"/>
          <Range Index="10" Min="4.0000028610229492e+00" Max="1.9829027175903320e+01"/>
          <Range Index="11" Min="9.7995987161993980e-03" Max="9.9868339538574219e+01"/>
          <Range Index="12" Min="1.2540633324533701e-03" Max="5.9975433349609375e+00"/>
        </Ranges>
      </Class>
    </Transform>
  </Transformations>
  <MVAPdfs/>
  <Weights>
    <Layout NLayers="4">
      <Layer Index="0" NNeurons="14">
        <Neuron NSynapses="20">
          3.1220627132420470e-01 1.4649951027802881e+00 7.0831708579511121e-01 2.9575068789933767e-01 -1.7443069030308371e+00 -1.1623051034548275e+00 -1.4344379600635160e+00 2.8357164337777960e+00 -1.3519210745472885e+00 -6.6659481755427896e-01 -2.6239955797220622e+00 -5.3744627542530965e-01 -2.1532272227706462e+00 9.6542565335032393e-01 -1.3244844752367599e-02 1.0588223203394618e+00 9.8374734467012548e-01 1.1242177925952443e+00 -3.3190046611888713e-01 1.7391606296904818e+00 
        </Neuron>
        <Neuron NSynapses="20">
          -1.0761181733180696e+00 2.8290426904193949e-01 9.8370431812201753e-01 7.4117287723616287e-01 -7.8391016867653637e-02 -4.3813435028010467e-01 1.1625219535851377e+00 1.1695825990793616e+00 -1.8225427875086226e+00 -2.1544205674479877e+00 -8.2342207480063531e-02 -8.1255108513254781e-01 -9.6145034063818302e-01 2.4785478938863683e+00 7.5977622086837693e-01 -6.2118208850461243e-01 -1.6333047682598367e+00 2.8842512051772178e+00 -3.1911685929904183e+00 1.3812516110106066e-01 
        </Neuron>
        <Neuron NSynapses="20">
          3.0041089588437081e-01 1.6544873998008893e+00 2.4190500437952398e+00 6.5371561849293014e-01 4.3990301375942648e-01 -6.0036518636148450e-01 3.6037177084183669e-01 -2.5942430156166613e-01 1.5334973684265842e+00 1.4855764427605109e-01 -2.2593829855012851e-01 5.8404744946301490e-01 -1.9302501200063673e+00 -2.8569339651737791e-01 -1.0948329828887822e+00 -1.8463292583424151e-01 -1.1508168087969652e+00 -2.8298291761490169e-01 3.3711590559146809e-01 -9.5275291058132858e-02 
        </Neuron>
        <Neuron NSynapses="20">
          -3.1516379316117821e-01 -1.0831478994621817e-01 2.7000179926330647e-01 2.7533918727192677e+00 1.3362720136283308e+00 -3.4946009481470602e-01 -2.6462269234589324e-02 -4.7290953365295686e-02 -1.3207411998510046e-01 1.1758302527860169e-02 9.0088941445827492e-02 -5.7478920104207340e-02 2.5181869420256031e-01 5.5364007536832966e+00 1.2244233392304393e+00 1.8717390429362976e-01 -3.8314462693125628e-01 -5.0617297338246656e+00 -8.9303860346777786e-02 4.7234464060441800e-01 
        </Neuron>
        <Neuron NSynapses="20">
          1.8006642339065730e+00 1.1529266599657353e+00 1.0007830929466752e+00 -6.3795417586389722e-02 1.2508387744642815e-01 4.7031591538031409e-01 4.0584367048451009e-01 1.3715909725272421e-01 -1.4335348316160428e+00 -2.0742664941741201e-01 7.8365054559105152e-01 6.2542983012193598e-01 6.6203061006709585e-01 -9.6817661859967474e-01 -1.1315110372634608e-01 9.9024728225169667e-01 -8.7189799951513181e-01 -8.4502510578267487e-01 1.0857541106291846e+00 -2.4190007391461060e-01 
        </Neuron>
        <Neuron NSynapses="20">
          -5.0849837174089130e-01 -1.3194666848874084e+00 5.4365103708722640e-01 3.1553366253789022e-01 -3.5539880383128158e-01 1.6378386916878342e+00 2.5905861106045297e-01 -7.6476641070549389e-01 8.7863014645317550e-01 1.0379829873821993e+00 -1.4790377329943669e-01 1.8518859537313279e+00 7.7140632513590768e-01 -6.7992411086451332e-01 -3.6930928981430333e-01 -4.1410294435120995e-03 5.6822747906749949e-01 -5.4053849441737289e-01 -2.5973644818539610e-01 -6.0607703231588872e-01 
        </Neuron>
        <Neuron NSynapses="20">
          -7.1321008696393184e-01 5.9606360960517513e-01 1.7343672821837308e-01 3.1048053838227402e-01 3.7828046364872997e-01 -1.7144181510499626e-01 -1.5602721256388183e-01 5.3517080771545245e-01 -1.2055005575536630e+00 -3.5305618594474175e-01 2.4765064198309106e-01 -5.0078597113610723e-01 -2.7469914457838501e-01 1.3132696975920549e-01 5.7080370669064284e-01 1.6426094391838114e-01 7.4587517621018207e-01 2.0769568465545546e-01 9.7680490760817196e-02 1.0476445556148195e+00 
        </Neuron>
        <Neuron NSynapses="20">
          1.1050761815378822e+00 3.5674232108898557e-01 -7.7256433291494708e-01 3.3467741671863810e-01 -1.6033489964443095e+00 1.1871386379970719e-01 4.0946088207799108e-01 -4.8738674132437365e-01 -5.7235439013197087e-01 3.0644266467328296e-01 -9.5272600561361731e-01 2.1535817045707251e-01 5.7350824659660415e-01 3.9523047966564168e-01 -5.8565439375521400e-01 9.0411470666673613e-02 1.5596855524782092e+00 5.2211708603538542e-01 -6.8189425925218886e-02 -1.0671556504722948e+00 
        </Neuron>
        <Neuron NSynapses="20">
          1.1736968162831616e+00 9.9993955852655159e-01 1.5319068735053301e-01 1.4837156353931655e+00 9.8890779925628636e-01 -1.1209546539789128e+00 -3.8281275711981727e-01 7.3874895156992904e-01 -1.0847259405810834e+00 -1.2002386878304245e+00 6.4683774500174485e-01 1.6167787281689527e+00 -7.1200924483478045e-01 1.9613849151353704e+00 2.3340377170292665e+00 -9.9513039432078620e-01 1.1781334665416849e+00 1.2049123316336219e+00 -1.2247647808296540e+00 -1.8716470454000018e+00 
        </Neuron>
        <Neuron NSynapses="20">
          -1.9074609327718572e+00 1.3949674048390650e+00 1.5585997744389934e+00 -1.1616312640602502e+00 -1.1654788944468224e-01 -2.9449906898808120e-01 4.9554462408961236e-01 1.7669804238810352e-01 4.5340350152304754e-01 5.1832163738079995e-01 -6.4806557111658492e-01 2.0672019191003397e+00 9.6309728055208543e-01 -7.7700837668273559e-01 7.3262075255437120e-01 2.0886487830229314e-01 -1.2149574461875814e+00 2.2210437457544491e-02 1.5999947432721382e+00 -1.5880685441253579e+00 
        </Neuron>
        <Neuron NSynapses="20">
          -1.3817621302224801e+00 8.7757710213683904e-01 3.8905688579057357e-01 -1.0172807391054948e+00 1.6083011477486326e+00 5.5370957702131282e-02 1.6569456748847261e-01 -3.0683173326270446e-01 1.7346511155732052e+00 4.7095988381528392e-01 -2.5523029805512532e-01 9.5028288033921915e-01 -2.2034802521456660e+00 -5.6954870139675584e-01 2.5154833786677901e+00 4.7567829702735914e-01 1.1521742724181601e+00 -8.1215119476809960e-01 4.6617359029422173e-01 -2.0281580257708551e+00 
        </Neuron>
        <Neuron NSynapses="20">
          -2.5798256902726249e+00 9.3470490833129516e-01 8.3356237430159430e-01 7.2276747811568454e-01 2.9377486674980373e+00 -2.9969012002707174e-02 9.7606704615509210e-01 -4.4350737749064164e+00 5.3964046394036724e-01 -1.8420729260974407e+00 1.8500840091156474e+00 6.2636947544710886e-01 3.2746869976995729e-01 -2.0798734062856505e+00 2.2579388107389464e+00 -3.4563058537250626e+00 1.8616035213052970e-01 -1.4923857212760525e+00 -6.0850735028413281e+00 -2.4703839598727568e+00 
        </Neuron>
        <Neuron NSynapses="20">
          -1.5306367600697315e+00 -4.7064603195385657e-01 2.5100928798028621e-01 -1.2886428809004480e+00 -9.5097918726467578e-01 -8.0264865915234740e-01 -9.5278102011601540e-01 -7.8733249093869126e-02 5.2559833676033085e-01 -9.4170392872239106e-01 -2.1841005685990036e-01 -6.4909258471421027e-01 -3.7705544773950106e-01 2.9007204694649547e-01 1.4898318331793026e+00 5.9631009468601814e-01 -1.7678891108315731e+00 -1.3526116123598056e-01 -2.6082385699404935e+00 -1.7015796807678645e+00 
        </Neuron>
        <Neuron NSynapses="20">
          1.6148843657178575e+00 -8.9381475158817902e-01 -3.3842415230174214e-02 4.0919127368440895e-02 -7.1243284098162707e-01 -4.3417615095272805e-01 -1.8233240806299942e+00 7.8013283400651323e-01 1.0393161346445547e+00 -4.5673372947786612e+00 -3.2917085898308653e+00 2.0500651404659836e-01 2.6524094631810686e+00 -1.2725133723108606e+00 -1.4041789986537161e+00 -7.3044097792099416e-02 1.1468364959219084e+00 -4.0185490407886004e-01 -7.7084003518510400e+00 3.5565929557434028e-01 
        </Neuron>
      </Layer>
      <Layer Index="1" NNeurons="21">
        <Neuron NSynapses="12">
          5.2808103782176863e-01 -4.4580794937380414e-01 -4.3873055768781255e-01 -8.2713833876710874e-01 -1.9709713436369543e+00 -1.5029937974766623e+00 3.0288085181758312e-01 1.9177715405477234e+00 -1.7295498795246362e+00 1.7893539879772207e+00 -1.5024386971263803e+00 -1.2369794561342447e-01 
        </Neuron>
        <Neuron NSynapses="12">
          -9.8568537326515326e-01 4.8032146268945597e-01 8.6788391226070882e-01 -1.8026674342355340e+00 2.2245235692280813e-01 6.5367805252563127e-01 -1.9296899932706677e+00 -1.4148503513668289e+00 -1.3014420695831850e+00 -8.4210101241156043e-01 1.8620056809706058e+00 -3.1237292900525354e-01 
        </Neuron>
        <Neuron NSynapses="12">
          -2.9969037570070950e-01 -9.8844959249917574e-01 -7.9177404133429441e-02 -1.3536338523132168e+00 -1.1268790189419735e+00 -1.0095398575492491e+00 1.8202039057784651e+00 -1.0517544984618661e+00 -1.0633757055869784e+00 1.9303551512586523e+00 3.3051436125579392e-01 -9.3923804398728306e-01 
        </Neuron>
        <Neuron NSynapses="12">
          8.7410489578086548e-01 -1.9148613781214863e+00 3.0110298141525849e-01 1.8883524786477110e-01 -1.4066094321702372e+00 9.6636052965367980e-02 3.6376341818569163e-01 -8.3731043721241583e-01 -1.0310856787615470e+00 3.1190166908126526e+00 1.4467558194166097e+00 -2.2525254380943127e-01 
        </Neuron>
        <Neuron NSynapses="12">
          -1.1220380199981413e-01 6.9632664528215471e-01 -5.2370599913724736e-01 -3.8959134453075661e-01 -1.6745670399088732e+00 -1.7166184433230061e-01 3.7429488039414438e-01 7.3533395054745665e-01 -1.5340007664819702e-01 1.4704067513455006e+00 4.4026642363667728e-01 1.3268344176196958e-01 
        </Neuron>
        <Neuron NSynapses="12">
          -7.2580625617981107e-02 -2.4748434682052414e-01 2.0084254107162898e+00 6.1165803417283537e-01 -5.2807889720880394e-02 -5.2676015737270476e-01 -1.0895483969420094e+00 4.7241029870272633e-01 8.6249183623942116e-01 -7.7559069415317017e-01 9.9641557514141121e-01 6.9833953618381528e-01 
        </Neuron>
        <Neuron NSynapses="12">
          9.8861273172798136e-01 -2.7828819782956998e-01 3.9252264821357469e-01 -1.4691824381869136e+00 -1.8014413273390624e+00 7.0426208177968397e-01 1.4026233473934038e+00 -6.2955117791249260e-01 -1.6775241020779079e+00 -1.5552264580270292e+00 -1.2389434202376333e+00 -2.2084256848550154e+00 
        </Neuron>
        <Neuron NSynapses="12">
          2.3427923854499620e-02 -1.4232944485073087e+00 -1.2020032469670496e+00 -5.8577322661977937e-01 -9.4349428513232791e-01 -2.3205684447018604e+00 1.0310485351702345e+00 -1.6619170083991466e-01 -1.9997645854596104e+00 2.2533630765093839e+00 8.3703867208241745e-01 -2.5050695372416276e-01 
        </Neuron>
        <Neuron NSynapses="12">
          -1.5429476146485349e-01 9.4947727357299716e-01 1.7016780279455899e+00 4.6170649167786598e-01 -1.1017550722642777e+00 -5.6655689328493031e-01 -9.5843558119307648e-01 7.5079709192288924e-01 2.6140021480717750e+00 9.7845622825202949e-01 1.5134695389109627e+00 4.5578246440423820e-01 
        </Neuron>
        <Neuron NSynapses="12">
          -4.4372104695856451e-01 -1.3076821303089883e+00 2.3654017675370040e+00 -8.6363784716318914e-01 -2.5442878423718671e+00 5.1077051350004221e-01 1.0266325705760679e+00 1.4027230319947874e+00 -7.3459621259623276e-01 2.0231408625710441e+00 2.0057934237126216e+00 -5.3325422354093421e-01 
        </Neuron>
        <Neuron NSynapses="12">
          2.2221567348522808e+00 1.4440397592888947e+00 1.5932656314628153e+00 -1.0348264650317203e+00 1.1655292566194397e+00 -2.0907712316251348e+00 2.8819166528249056e+00 2.5009887407630602e+00 -3.6448214699129506e+00 -3.4656324869974764e-01 9.3249716910146063e-03 -2.4622781342991380e+00 
        </Neuron>
        <Neuron NSynapses="12">
          6.0269177285266784e-01 -1.9586740033641716e+00 1.9532034119195699e-01 1.4394246526953451e+00 7.4464023699939652e-01 4.1494577932859139e-01 4.2794631585635673e-01 3.3050701697085577e-01 -7.4091955163449397e-01 9.6862130274125535e-01 1.9241342526712630e+00 -1.3491848072891124e+00 
        </Neuron>
        <Neuron NSynapses="12">
          -1.1166255162210339e+00 -5.9890696040759495e-01 -1.4010547844863828e+00 -1.6559163452810381e+00 -1.5471779050983430e+00 4.6811989189219128e-01 2.7990674036069030e-01 -2.1244272068028018e+00 -2.1334301446296076e+00 -2.1830503356895176e-01 1.8165589694151825e+00 1.5702258898649857e+00 
        </Neuron>
        <Neuron NSynapses="12">
          1.4976752587316149e+00 -9.0299985982351771e-01 -1.5605212832656623e+00 -4.5952158926238401e-01 -1.4964545286190367e+00 -2.3747844905546596e+00 1.6481980122455608e+00 3.2312054472422602e-01 -2.7610677186791865e+00 1.9736568800388539e+00 1.4395875477172360e+00 -4.8049876096192373e-01 
        </Neuron>
        <Neuron NSynapses="12">
          -4.1089170244499362e-01 -8.5322250914929210e-01 1.7691329348284621e+00 -7.5260944392278051e-01 2.3603447226948684e-01 1.1408452703330585e+00 1.2892807845540346e+00 -8.7333026860267138e-01 9.3888691478039898e-01 -1.9040894094026144e+00 1.6520421408931583e+00 1.3895509443055198e+00 
        </Neuron>
        <Neuron NSynapses="12">
          3.5718873016118763e-01 -4.3484218762680249e-01 2.3288639731020808e-01 -1.1529794599482526e+00 9.1743887755069642e-01 7.4611245231734846e-01 1.2489166034411812e+00 -5.4708287447117299e-01 -1.9596411022722784e+00 1.9689526562201343e+00 4.7780219359755705e-01 -5.1500640670321607e-01 
        </Neuron>
        <Neuron NSynapses="12">
          -5.6626914193076094e-01 1.4130818530517284e+00 2.9112777527005024e-01 -5.8221528688080970e-01 -7.0054689624616440e-01 6.8079221909338294e-01 5.3715430010930565e-01 1.5277044874112116e+00 -6.8635157442093120e-01 -8.1843820296168424e-01 1.6016855223429951e+00 -3.4934235515498308e-01 
        </Neuron>
        <Neuron NSynapses="12">
          5.7285641334713222e-01 8.1017385147294733e-03 -1.2604581900431202e+00 -6.7992499353890867e-01 6.1056051215543117e-01 -2.1904807614051447e+00 1.8111487701388085e+00 -1.3980092840587297e+00 -2.8785032261696446e+00 -1.3929492235426317e+00 -3.6220816361482736e-02 -8.4772279007389295e-01 
        </Neuron>
        <Neuron NSynapses="12">
          3.2867083556623167e-01 -6.2410390579042740e-01 2.2753625316772093e+00 -8.8183763043586527e-01 -2.3268935295483510e+00 1.5041747893578126e+00 1.8375934645486827e+00 2.3817323986066588e+00 -1.9884055930576003e+00 4.0606997180701748e-01 1.9523426809554265e+00 -1.1935524284955825e+00 
        </Neuron>
        <Neuron NSynapses="12">
          4.5548397613747682e-01 -1.3658295760559354e+00 1.0153844233410758e+00 -7.9715679958737529e-01 -9.5535821296645305e-03 -3.0070384869059019e-01 7.6766088430595503e-01 -2.4622380868766491e-01 2.8609047576188470e-02 6.4706556636771284e-01 3.8825816320826156e-01 3.6894429182202676e-01 
        </Neuron>
        <Neuron NSynapses="12">
          1.6471139489968794e+00 -2.6019855127529512e+00 2.2506981580687517e+00 -1.0497937966846578e+00 -1.1841313769073165e+00 -3.2468038899518628e+00 -2.0706873224449778e+00 2.3205832045998229e+00 4.1124444172040695e+00 6.1391004974242991e-01 3.9973444670211067e-01 9.6315538324401428e-02 
        </Neuron>
      </Layer>
      <Layer Index="2" NNeurons="13">
        <Neuron NSynapses="1">
          -3.5732661655577064e-01 
        </Neuron>
        <Neuron NSynapses="1">
          1.6262449022850834e-02 
        </Neuron>
        <Neuron NSynapses="1">
          -7.8305913479141331e-01 
        </Neuron>
        <Neuron NSynapses="1">
          -4.7785231603178135e-01 
        </Neuron>
        <Neuron NSynapses="1">
          -1.4890722107861981e-01 
        </Neuron>
        <Neuron NSynapses="1">
          -8.4630036375456064e-01 
        </Neuron>
        <Neuron NSynapses="1">
          -3.7272528616251843e-01 
        </Neuron>
        <Neuron NSynapses="1">
          -4.4694169863151423e-01 
        </Neuron>
        <Neuron NSynapses="1">
          -6.8159134508746236e-02 
        </Neuron>
        <Neuron NSynapses="1">
          3.3432261108967222e-02 
        </Neuron>
        <Neuron NSynapses="1">
          -2.6273714161532632e-03 
        </Neuron>
        <Neuron NSynapses="1">
          -5.9296134249530452e-01 
        </Neuron>
        <Neuron NSynapses="1">
          1.0087430333375540e+00 
        </Neuron>
      </Layer>
      <Layer Index="3" NNeurons="1">
        <Neuron NSynapses="0"/>
      </Layer>
    </Layout>
  </Weights>
</MethodSetup>
